3
physics -0.108880 -0.007528 0.426134 0.963004 -0.507716 0.470242 -0.219565 1.138833 0.315524 -0.385109 0.144632 0.644471 -0.225998 -0.458361 0.165741 -0.069558 -0.288416 -0.219967 0.493659 0.382334 0.495643 0.848198 0.334073 -0.180702 0.586107 0.082359 0.650551 -0.433207 0.083235 -0.045247 0.549418 0.379176 0.451809 0.322069 0.259639 -0.291240 -0.082107 -0.804509 0.365984 -0.418402 -0.365661 0.992524 -0.544291 1.234706 0.208428 0.287125 -0.534517 0.706120 0.026670 -0.214763 -0.043624 0.742015 -1.199362 0.491577 0.080578 -0.213467 0.225588 -0.107015 -0.378256 0.603987 0.153807 -0.229635 -0.331136 -0.003849 1.080428 0.087739 -0.562254 -0.251489 -0.290721 -0.322449 0.156319 -0.228711 -0.414816 0.542213 0.347666 -0.619293 0.304458 0.280005 -0.295152 -0.385683 0.415975 0.377426 0.244103 -0.546322 0.541233 0.404491 0.352376 0.337038 1.415907 -0.218054 0.461119 0.687831 -0.757712 -0.074576 0.152414 0.797385 -0.175026 -0.003746 -0.101122 0.216726
computer_science -0.220764 0.556302 0.473869 0.251114 0.770792 -0.428091 0.195987 0.290028 0.154546 0.127832 0.108228 0.270419 0.707283 -0.057789 0.075361 -0.450743 0.055898 -0.046996 0.733217 0.530671 0.406404 0.594547 -0.368561 -0.073706 0.955257 0.118791 0.308674 -0.542986 0.955637 0.453690 0.826141 0.800107 0.410500 -0.037188 0.553765 -0.689495 -0.005646 0.335884 0.128035 -1.120737 -0.184259 1.376246 -0.251042 -0.063371 1.321360 0.712308 -1.601125 0.119312 -0.248528 0.508675 -0.186162 -0.053327 -0.565009 -0.131091 -0.339020 -0.097140 0.573076 0.530964 -0.363103 0.271653 0.893406 0.788759 0.432752 0.364639 0.997029 -0.184941 -0.607361 -0.374109 -0.260184 -1.056913 -0.519772 0.653273 -0.043329 0.561379 -0.072187 0.213106 0.302632 0.287363 -0.637713 -0.009163 -0.021494 0.024607 -0.547945 -0.244766 -0.205353 1.169140 -0.365584 -0.234467 0.049852 0.442908 0.599731 -0.648461 -0.738542 -0.277866 -0.314646 0.926770 0.083512 0.134426 0.070516 -0.017631
electrical_engineering 0.248662 0.642428 0.340280 0.275411 0.155380 -0.109468 0.106588 0.508830 -0.070361 -0.319239 0.119946 -0.553823 0.177185 -0.997800 -1.240161 -0.161761 -0.001799 0.071347 0.105896 -0.394088 0.577630 0.277288 -0.575094 -0.548660 -0.327353 -0.593579 0.435892 -0.849456 0.076123 0.280250 0.439486 -0.273774 -0.460413 0.179887 0.096608 0.220388 0.116225 -0.758548 0.445919 -0.614890 -0.272471 -0.012326 -0.470509 0.431177 0.839410 0.200825 0.133234 0.306903 -0.734266 -0.152618 -1.388196 0.566365 -0.185969 0.280486 0.287756 0.190215 0.261014 0.029822 -0.219461 -0.364124 0.137055 0.780629 0.643228 0.393197 1.631521 -0.579178 0.433697 0.271696 -0.157732 -1.007405 -0.274283 -0.371306 0.175121 0.471053 0.661984 -0.306225 -0.429963 0.329024 -0.604501 -0.099618 0.576944 -0.438835 0.200586 -0.002824 -0.261700 0.092934 -0.176416 -0.186578 0.758094 0.554608 0.184763 -0.252204 0.031607 0.227745 0.526405 0.828009 -0.174489 -0.358154 -0.304395 -0.163888
