3
physics -0.083449 0.120290 0.438084 0.873130 -0.366573 0.456715 -0.289579 1.232880 0.199390 -0.351056 0.229448 0.665304 -0.217156 -0.389151 0.124844 0.016900 -0.268272 -0.278056 0.488415 0.473602 0.466797 0.995679 0.250124 -0.065724 0.708176 0.031632 0.738072 -0.554196 0.067011 0.013043 0.595393 0.593305 0.544080 0.248978 0.243694 -0.427399 -0.192936 -0.688700 0.433323 -0.513683 -0.387084 0.816793 -0.527497 1.057835 0.102143 0.231454 -0.554139 0.706247 -0.006388 -0.266138 -0.178946 0.679403 -1.107045 0.479967 0.229768 -0.258011 0.148122 -0.217606 -0.397191 0.682894 0.114980 -0.235192 -0.310488 0.151045 1.039125 0.067890 -0.468276 -0.315429 -0.215154 -0.294798 0.105858 -0.235049 -0.352663 0.471821 0.303432 -0.756589 0.443105 0.257872 -0.357758 -0.588288 0.394778 0.369668 0.209683 -0.598934 0.555302 0.317656 0.220037 0.266751 1.423243 -0.045307 0.354101 0.701603 -0.626133 -0.032855 0.203530 0.747577 -0.158890 -0.149174 -0.219591 0.239186
electrical_engineering 0.157427 0.645378 0.403845 0.165922 0.147052 -0.181058 0.090517 0.549887 0.000166 -0.314959 -0.043047 -0.500477 0.183290 -0.955545 -1.180081 -0.363667 -0.118026 -0.127957 0.022777 -0.267079 0.500375 0.245531 -0.722023 -0.547678 -0.404043 -0.656390 0.388889 -0.723216 0.061450 0.197417 0.413345 -0.247139 -0.291647 0.189196 0.203627 0.202807 0.246375 -0.880895 0.519020 -0.721278 -0.344315 0.141156 -0.491281 0.382254 1.000072 0.221691 0.020608 0.498687 -0.603320 -0.130495 -1.251547 0.460993 -0.195732 0.183558 0.249441 0.052664 0.196491 0.038501 -0.191861 -0.310558 0.204191 0.903724 0.544051 0.386474 1.595016 -0.598355 0.507407 0.194973 -0.111658 -1.154686 -0.160554 -0.421054 0.130570 0.529979 0.662650 -0.282887 -0.449096 0.356576 -0.483200 -0.075892 0.818378 -0.475721 0.068989 0.114184 -0.364474 0.099894 -0.091904 -0.261242 0.711637 0.431455 0.220666 -0.187134 0.031977 0.034261 0.593284 0.920976 -0.150605 -0.315371 -0.359674 -0.063479
computer_science -0.136799 0.646012 0.440726 0.333111 0.704648 -0.585865 0.183082 0.413968 0.214694 -0.005616 0.170638 0.189427 0.727750 -0.081940 0.107405 -0.261559 -0.007566 -0.021933 0.865692 0.269207 0.385372 0.612825 -0.254430 -0.037159 0.965930 0.149105 0.379230 -0.746846 0.847814 0.578093 0.761880 0.667000 0.449513 -0.011954 0.505241 -0.564591 0.056917 0.397718 -0.071013 -1.062055 -0.014932 1.229106 -0.173981 -0.067005 1.233510 0.748069 -1.459631 0.079555 -0.361799 0.520669 -0.167830 -0.038699 -0.431934 -0.179294 -0.213478 -0.122163 0.305444 0.382489 -0.249068 0.337148 1.048408 0.471471 0.394604 0.251452 1.094762 -0.137628 -0.598872 -0.298443 -0.256929 -1.098285 -0.560469 0.680606 -0.175912 0.607937 -0.052305 0.251396 0.328268 0.321668 -0.657885 -0.149812 -0.216982 0.133698 -0.404973 -0.323090 -0.218751 1.120053 -0.425627 -0.235195 -0.066061 0.305628 0.612752 -0.893007 -0.866613 -0.310788 -0.503548 0.885168 -0.018153 0.354519 0.282809 -0.120024
