2
machine_learning -0.584419 0.727254 -0.603311 -0.404932 -0.511528 0.495854 0.268532 0.439077 -0.514427 -0.466795 0.419606 0.332949 0.141641 -0.321772 0.330113 -0.304571 0.790505 -0.026739 0.322415 0.724159 0.632704 -0.175898 -0.321374 -0.255299 -0.039072 0.143416 0.462854 0.007272 0.665962 0.797457 -0.007753 0.389073 0.149146 -0.035964 0.043037 -0.139026 -0.047245 0.879667 0.175483 -0.211089 -0.302855 0.495926 -0.716077 0.902915 0.485676 -0.248875 -0.260593 0.395757 0.023706 0.612885 -0.374993 0.209836 -0.360005 0.999221 0.562804 -0.187027 0.356640 0.519853 0.236450 -0.024965 0.558566 -0.323286 -0.773195 0.621746 1.076669 -0.340407 -0.779486 -0.467928 -0.820189 -0.487369 -0.132978 0.768496 -0.715774 -0.209739 0.164443 0.520516 0.348620 0.077948 -0.264158 0.082578 0.261199 -0.264842 -0.412537 -1.085285 0.026841 1.119384 -0.138916 -0.366982 1.367074 -0.304567 -0.462169 -0.144661 -0.339249 0.140022 -0.487014 0.040484 0.003888 -0.312565 -0.643138 -0.032461
data_mining 0.581009 0.458254 0.081130 0.144164 0.119157 -0.375106 0.020998 -0.044869 0.577894 -0.568411 0.057654 -0.150961 -0.075692 0.494118 -0.507119 0.190619 -0.177764 -0.805091 0.435506 -0.211067 -0.335893 0.399344 0.255173 -0.800123 0.041889 -0.269329 0.097663 -0.284716 0.654334 0.025687 0.693873 0.148061 0.411841 0.326103 0.329389 -0.448542 -1.504606 0.278154 0.624340 -0.489510 -0.423215 -0.446573 -0.050071 -0.274356 0.575566 -0.137424 -0.045696 0.387374 -0.449123 0.550483 0.128237 -0.055981 -0.197589 -0.176730 0.365478 -0.101205 0.345507 -0.465693 -0.511896 0.770554 0.164570 0.167058 -0.808508 0.225271 1.228745 -0.512790 -1.269726 -0.787020 -0.024125 -0.129747 -0.461587 -0.862455 -0.651009 0.433356 -0.368951 -0.915632 1.041950 0.238059 0.268423 -0.006136 0.272081 -0.632741 -0.053000 0.604153 0.729261 0.713954 -0.188620 -0.736118 -0.244005 0.274790 -0.132975 -0.282973 -0.325586 -0.281310 0.298451 0.599660 0.357785 -0.434496 -0.946997 -0.868036
