3
physics -0.159885 0.229514 0.423492 0.806089 -0.297264 0.326975 -0.173985 1.061794 0.132731 -0.181436 0.381159 0.455250 -0.386810 -0.335997 0.194976 0.044955 -0.345187 -0.466278 0.452675 0.533043 0.518451 1.365326 0.086749 -0.213830 0.607006 -0.196295 0.679296 -0.705748 0.348939 0.354462 0.670806 0.675032 0.679355 0.157670 0.667297 -0.411466 -0.101926 -0.490319 0.692981 -0.313165 -0.325439 0.758216 -0.634586 0.950548 0.060465 0.365807 -0.160599 0.951451 0.078125 -0.358597 -0.236560 0.619867 -0.760832 0.460607 0.135741 -0.145958 0.163954 0.046904 -0.462459 0.571493 0.204475 -0.167017 -0.662590 -0.000470 1.224288 -0.012341 -0.681370 -0.171340 -0.150506 -0.321759 0.142372 -0.365025 -0.637979 0.603932 0.315564 -0.815661 0.257466 0.205731 -0.484325 -0.834259 0.231923 0.311046 0.343844 -0.752182 0.416181 0.135949 0.458353 -0.052373 1.315796 0.159993 0.353779 0.735020 -0.529414 -0.190431 -0.149049 0.594057 -0.068328 -0.266427 -0.168885 0.081137
computer_science -0.178291 0.282628 0.273053 0.046720 1.037824 -0.348752 0.502652 0.495046 0.036172 0.157168 0.378053 0.344118 0.250000 0.020838 -0.153977 0.188219 0.155187 -0.375249 0.978755 0.496582 0.304612 0.623223 -0.211910 -0.199347 0.410250 0.248647 0.335427 -0.577094 0.779890 0.463031 1.072639 0.165696 0.546600 0.317430 0.400202 -0.629197 -0.316301 0.707148 0.011865 -0.643769 -0.165358 0.947893 -0.211164 -0.132052 1.661186 0.701339 -1.540144 -0.143196 0.074662 0.531466 -0.525416 0.017559 -0.513024 -0.396913 0.071677 -0.652939 0.164891 0.442374 -0.229880 0.198577 0.745008 0.710017 0.353449 0.344707 1.030980 -0.230108 -1.013680 -0.353721 -0.406002 -1.208268 -0.065918 0.561049 -0.302043 0.401325 -0.010476 0.419616 0.128197 0.520821 -0.426750 -0.547898 -0.205913 -0.335509 -0.261789 0.010189 0.041471 1.047977 -0.603873 -0.297318 0.006682 0.243497 0.310191 -0.691832 -0.382012 -0.338627 -0.577987 1.092459 -0.240055 0.396868 -0.029246 0.114157
electrical_engineering 0.222781 0.967768 0.312442 0.001841 -0.043058 -0.089280 0.249511 0.211865 -0.097165 -0.185464 -0.355098 -0.845467 0.292179 -0.857143 -1.090953 -0.528047 -0.101579 0.183984 -0.166507 -0.122011 0.615455 0.344401 -0.320435 -0.566793 0.021215 -0.514410 0.244265 -1.087896 0.151142 0.580986 0.366568 -0.251275 -0.428398 0.421290 -0.041639 0.007327 0.249941 -0.668303 0.314985 -0.460738 -0.255581 0.149681 -0.312038 0.383430 0.807333 -0.031000 0.000956 0.581688 -0.903071 -0.113952 -1.184275 0.444735 -0.144070 0.248575 0.223617 0.439830 0.247585 0.012267 0.102024 -0.370519 0.378802 0.807125 0.621616 0.355322 1.165357 -0.419006 0.525672 0.118863 -0.123314 -0.852157 -0.472850 -0.167001 0.180573 0.665223 0.420340 -0.530054 -0.226902 0.120202 -0.310569 -0.125286 0.800952 -0.519319 -0.081901 0.171698 -0.509768 0.241036 -0.273217 -0.221350 0.530603 0.023422 0.253092 -0.063863 0.022671 0.143121 0.788015 0.943076 -0.033835 -0.523901 -0.349428 -0.341360
