3
data_mining 0.480972 0.193756 -0.061366 0.180442 0.023884 -0.131765 0.036526 -0.122676 0.562052 -0.793031 -0.181747 -0.266051 -0.238640 0.371252 -0.390995 -0.025861 0.121544 -1.042814 0.466761 -0.241334 -0.283043 0.522039 -0.077772 -0.942089 0.365862 -0.221947 0.145990 -0.338465 0.674835 -0.016517 0.741386 -0.064856 0.358438 -0.021885 0.157256 -0.523460 -1.349812 0.114755 0.399617 -0.486781 -0.270444 -0.104211 -0.077838 -0.537080 0.432159 -0.049626 0.043913 0.481945 -0.327738 0.414446 -0.067093 0.146977 -0.131111 0.107502 0.413918 -0.288503 0.457892 -0.493549 -0.513389 0.432807 0.549031 0.317634 -0.815595 0.076032 1.229764 -0.324369 -1.044908 -0.755184 -0.040678 -0.217975 -0.496350 -0.939931 -0.514849 0.456998 -0.238577 -0.804862 1.245503 0.164239 0.156287 0.232195 0.681314 -0.311652 -0.199722 0.569877 0.476621 0.709835 -0.366983 -0.819797 -0.341798 -0.055023 -0.279298 -0.076763 -0.224923 0.299275 0.554735 0.620774 0.453294 -0.305456 -1.212875 -0.915642
text_mining 0.279030 0.253310 0.431048 -0.551565 -0.503609 -0.727129 0.243343 -0.802945 -0.686684 0.124215 0.816275 -0.151401 0.103029 0.267119 0.281725 0.868309 0.299576 0.288761 0.419242 -0.439384 0.667019 0.298414 0.031183 0.220729 0.116356 -0.311832 0.264963 -0.072334 0.896472 0.374196 0.424044 0.010717 0.450795 0.597962 0.353215 -0.656617 -0.723166 0.783259 0.389478 -0.231182 0.325657 0.340411 -0.131476 0.132214 0.132825 -0.466442 -0.038016 0.438535 -0.195616 0.207520 -0.046973 0.361109 -0.559380 -0.059068 1.111575 0.415267 0.443661 -0.661096 0.173135 0.877995 -0.257003 -0.108674 0.254473 0.286863 0.825838 -0.761805 -0.544654 -0.302709 -0.154243 0.061548 0.310391 0.903239 -0.539060 0.007370 0.024189 -0.428612 0.065200 -0.169784 0.293403 0.461326 -0.717407 -0.451443 0.082782 0.136187 1.148811 0.596503 -0.076749 -0.348493 0.776326 0.391208 0.503598 -0.558030 -0.162799 -0.096158 -0.280292 0.297555 0.496065 0.158553 -0.335547 0.729106
machine_learning -0.787830 0.921198 -0.797391 -0.101582 -0.136805 0.837932 0.250615 0.463490 -0.364379 -0.613451 0.211747 0.374536 0.305840 -0.193352 0.276439 -0.352616 0.617430 -0.229093 0.514712 0.655032 0.387777 -0.419876 -0.635323 -0.153744 0.040395 0.114054 0.235306 0.115548 0.477518 0.724687 -0.215038 0.245437 0.382155 -0.146952 0.375405 0.165175 -0.072369 0.820725 0.250348 -0.148798 -0.565907 0.204910 -0.673771 0.777895 0.780977 -0.250269 -0.382733 0.124153 0.002620 0.486983 -0.217475 0.054394 -0.268980 0.822131 0.424027 -0.263716 -0.067938 0.632108 0.204654 -0.050904 0.307402 -0.000607 -1.034004 0.668999 0.941152 -0.502998 -0.866717 -0.450076 -0.872017 -0.351461 -0.195714 0.419373 -0.792256 -0.471498 0.193839 0.358239 0.297544 0.124611 -0.306389 0.168376 0.127421 -0.420749 -0.477295 -1.171985 -0.164078 1.173201 -0.334416 -0.197928 1.249348 -0.340026 -0.629853 -0.447832 -0.260763 -0.035482 -0.503938 -0.054219 -0.112413 -0.464183 -0.629346 -0.237399
