3
computer_vision -0.679906 0.563287 0.090661 -0.182595 -0.135532 -0.698815 -0.371738 0.421442 -0.506818 -0.498558 0.101971 -0.326340 -0.103787 -0.536922 -0.399081 -0.254305 0.179415 -0.183841 -0.259413 -0.658186 -0.188756 0.433336 -0.455547 0.006001 0.401407 -0.170060 -0.570912 0.207327 0.418453 0.825459 0.923743 -0.059817 -0.595270 -0.428267 0.752737 -0.414612 0.174238 -0.330583 1.269567 0.033272 0.359358 0.032524 -0.653611 0.160516 0.000854 -0.286509 -0.361397 0.119219 -0.706430 0.424134 -0.126079 -0.102381 -1.033201 -0.221256 0.284975 0.678507 -0.056132 -0.023769 -0.573223 0.312754 0.085219 -0.304415 -0.613862 0.502800 0.201843 -0.193657 -0.808236 -0.552737 -0.506930 -0.397639 -0.378987 1.133059 -0.532127 0.339551 0.410751 -0.212192 0.911344 -0.084233 0.103440 -0.311940 0.073078 -0.467401 -0.282629 -0.286330 0.070542 0.664999 0.445598 -0.500302 0.627445 0.211972 -0.432000 -0.292409 0.070701 0.168396 0.630658 0.565395 -0.310502 -0.036212 -0.973590 -0.365376
machine_learning -0.394251 0.653681 -0.402280 -0.229791 -0.309870 0.639351 0.390236 -0.179703 -0.377858 -0.334829 0.489456 0.133798 0.223908 -0.312597 0.372611 -0.122871 0.656690 -0.387376 0.391221 0.898342 0.553204 -0.620213 0.196259 -0.220024 0.239140 -0.388065 0.485476 0.367216 0.541684 0.424186 -0.160905 0.070642 0.155459 -0.222803 0.138129 -0.502530 -0.274781 0.968383 -0.439524 -0.253169 -0.601552 0.251240 -0.798712 0.361437 0.366288 -0.235815 -0.586165 0.555417 0.122102 0.169048 -0.050761 -0.098154 0.011283 0.695162 0.289206 -0.297317 0.044095 0.843516 0.354683 0.168952 0.533873 -0.401967 -0.852046 0.480123 1.004941 -0.617921 -0.214694 -0.547187 -0.758228 -0.385889 -0.163486 0.267078 -0.605757 -0.562756 0.250712 0.493865 0.099482 0.320915 -0.230809 0.674822 -0.171012 -0.512936 -0.160594 -1.430068 -0.011401 1.508577 -0.178300 0.047400 0.543315 -0.310820 -0.039098 -0.280071 -0.760037 -0.084787 -0.603643 -0.174885 0.261376 -0.338386 -0.810878 -0.403456
data_mining 0.526911 0.254217 0.263281 0.336772 0.071129 -0.285094 0.175777 0.046991 0.638337 -0.511816 0.230705 0.118946 -0.596180 0.153139 -0.300785 -0.110096 -0.070061 -1.074254 0.603606 0.091211 -0.257793 0.362394 0.553601 -0.904638 0.167155 -0.339209 0.547389 -0.735850 0.370372 0.066516 0.810150 0.056526 0.774383 0.309459 0.469338 -0.158074 -1.511752 0.407584 0.391920 -0.528087 -0.343055 -0.194579 -0.049310 0.304749 0.371146 -0.017326 0.236433 0.523277 -0.290693 0.839083 0.016336 0.354349 -0.426225 -0.101276 -0.075992 -0.194162 0.172998 -0.221256 -0.254623 0.022638 0.111145 0.260524 -0.096467 0.629506 1.136605 -0.422143 -1.260851 -0.701237 -0.356272 0.162360 -0.583872 -1.240735 -0.730861 0.446191 -0.289356 -0.612525 1.173862 0.036132 -0.145814 -0.228363 0.110746 -0.090949 0.062894 0.558991 0.659226 0.832469 -0.189363 -0.815366 0.116979 0.089456 0.049727 -0.011451 -0.148246 0.117332 0.154044 0.121802 0.353549 -0.332500 -0.983919 -0.296527
